booster[0]:
0:[tiempo_ultima_aparicion_hasta_fin_ventana_auctions<91664.2031] yes=1,no=2,missing=2,gain=4.33040078e+12,cover=683534
	1:leaf=48815.1797,cover=169252
	2:leaf=51297.4219,cover=514282
booster[1]:
0:[tiempo_ultima_instalacion_hasta_fin_ventana<174426.062] yes=1,no=2,missing=2,gain=2.29270723e+12,cover=683534
	1:leaf=23631.2109,cover=13392
	2:leaf=29252.8105,cover=670142
booster[2]:
0:[apariciones_hora_14_a_18_auctions<2.5] yes=1,no=2,missing=2,gain=1.58470871e+12,cover=683534
	1:leaf=15683.9561,cover=182411
	2:leaf=17147.6777,cover=501123
booster[3]:
0:[tiempo_ultima_instalacion_hasta_fin_ventana<78555.2188] yes=1,no=2,missing=2,gain=9.38785898e+11,cover=683534
	1:leaf=4534.8667,cover=6459
	2:leaf=9683.99512,cover=677075
booster[4]:
0:[tiempo_ultima_aparicion_hasta_fin_ventana_auctions<11376.9268] yes=1,no=2,missing=2,gain=1.1060128e+12,cover=683534
	1:leaf=3791.47827,cover=59628
	2:leaf=5707.46875,cover=623906
booster[5]:
0:[tiempo_primera_aparicion_hasta_fin_ventana_auctions<79304.3594] yes=1,no=2,missing=2,gain=6.01526108e+11,cover=683534
	1:leaf=1548.19763,cover=38255
	2:leaf=3282.77319,cover=645279
booster[6]:
0:[cantidad_evento_0_events<0.5] yes=1,no=2,missing=2,gain=4.83379905e+11,cover=683534
	1:leaf=561.284424,cover=50125
	2:leaf=1932.31885,cover=633409
booster[7]:
0:[apariciones_hora_14_a_18_auctions<0.5] yes=1,no=2,missing=2,gain=3.50903861e+11,cover=683534
	1:leaf=452.717773,cover=139796
	2:leaf=1207.67688,cover=543738
booster[8]:
0:[tiempo_ultima_instalacion_hasta_fin_ventana<7449.77637] yes=1,no=2,missing=2,gain=4.22605357e+11,cover=683534
	1:leaf=-7669.14111,cover=1112
	2:leaf=619.127319,cover=682422
booster[9]:
0:[tiempo_ultima_aparicion_hasta_fin_ventana_auctions<2948.84888] yes=1,no=2,missing=2,gain=3.19502516e+11,cover=683534
	1:leaf=-1132.49438,cover=25344
	2:leaf=405.253296,cover=658190
